Language model created by QuickLM on Tue Aug 24 00:29:45 EDT 2021
Copyright (c) 1996-2010 Carnegie Mellon University and Alexander I. Rudnicky

The model is in standard ARPA format, designed by Doug Paul while he was at MITRE.

The code that was used to produce this language model is available in Open Source.
Please visit http://www.speech.cs.cmu.edu/tools/ for more information

The (fixed) discount mass is 0.5. The backoffs are computed using the ratio method.
This model based on a corpus of 4 sentences and 8 words

\data\
ngram 1=8
ngram 2=10
ngram 3=8

\1-grams:
-0.9031 </s> -0.3010
-0.9031 <s> -0.2430
-1.0280 CHROME -0.2430
-1.5051 CLOSE -0.2583
-1.5051 CROME -0.2430
-1.5051 OPEN -0.2583
-1.5051 OTKROIY -0.2583
-1.5051 ZACROIY -0.2872

\2-grams:
-0.9031 <s> CLOSE 0.0000
-0.9031 <s> OPEN 0.0000
-0.9031 <s> OTKROIY 0.0000
-0.9031 <s> ZACROIY 0.0000
-0.3010 CHROME </s> -0.3010
-0.3010 CLOSE CHROME 0.0000
-0.3010 CROME </s> -0.3010
-0.3010 OPEN CHROME 0.0000
-0.3010 OTKROIY CHROME 0.0000
-0.3010 ZACROIY CROME 0.0000

\3-grams:
-0.3010 <s> CLOSE CHROME
-0.3010 <s> OPEN CHROME
-0.3010 <s> OTKROIY CHROME
-0.3010 <s> ZACROIY CROME
-0.3010 CLOSE CHROME </s>
-0.3010 OPEN CHROME </s>
-0.3010 OTKROIY CHROME </s>
-0.3010 ZACROIY CROME </s>

\end\